5 3 7 5 3 -5 3 9 3 9 7 
1 -3 5 -1 1 3 1 -9 7 13 -3 
3 -3 5 1 -1 1 3 9 13 3 7 
7 3 9 5 5 5 11 5 5 9 1 
9 5 7 1 9 7 1 9 7 7 3 
3 7 7 3 5 9 7 5 11 9 7 
5 9 5 -1 -1 -1 -1 1 11 9 7 
5 7 11 3 -5 1 3 5 -7 7 11 
17 9 9 1 11 7 5 7 -3 11 1 
-1 -7 -3 3 1 3 1 3 5 9 11 
-1 -3 3 3 3 5 9 3 9 7 3 

-4 2 -6 -4 6 2 -6 4 -2 4 -2 
-8 0 8 -10 0 14 8 -2 2 4 4 
6 -4 0 12 -6 -8 6 4 -4 -2 -2 
2 10 -4 0 12 -8 -6 4 0 -4 0 
0 0 2 -4 0 -6 -12 0 2 -6 2 
-10 -2 -2 -2 8 4 2 -4 -10 0 -2 
0 0 4 -6 -2 6 2 0 -6 -12 -2 
-8 -6 6 2 6 8 6 0 0 -10 2 
-4 -4 4 -12 2 14 12 2 4 2 -4 
-2 0 8 6 0 -2 4 2 -4 0 -2 
2 0 -2 2 6 0 4 2 0 2 2 

-2 8 -4 -6 4 0 -8 2 4 -6 0 
2 2 -2 -4 -2 8 -2 -8 0 -10 2 
12 2 2 2 8 -6 -8 -2 -2 0 0 
4 0 10 2 -2 -2 -4 -6 -2 -2 -2 
2 -6 0 -2 6 -4 -2 -10 -8 -4 -4 
-4 0 0 4 2 2 0 2 8 -2 4 
-10 2 -2 0 4 -4 0 -2 0 -2 -4 
-6 0 -12 0 4 2 0 -2 -2 4 0 
-2 2 2 10 -8 4 2 8 2 -4 2 
8 -2 2 4 -2 4 2 4 2 -2 8 
4 -10 -4 4 -8 6 6 8 2 0 8 

-3 3 3 5 3 -5 -1 5 -5 5 -1 
1 9 1 -1 -11 7 5 -9 -1 -3 1 
3 5 -7 -11 7 5 -5 -3 9 7 3 
3 -1 1 5 1 5 -5 5 1 -7 -3 
9 1 7 -3 -3 -5 1 -7 -1 7 3 
-5 -9 -5 -5 -7 1 -1 -7 3 -3 -1 
-3 9 5 -1 -1 7 -1 1 3 5 11 
-3 3 -9 -9 3 1 3 -3 -3 -5 -1 
1 1 1 5 3 7 -3 7 -7 -1 5 
3 5 -3 -9 5 -5 5 -5 1 1 -1 
3 5 -13 7 3 5 1 7 1 -5 7 

3 -7 -3 3 1 5 1 -5 -7 7 9 
3 -1 3 5 3 1 3 1 9 -1 7 
9 -1 -1 11 9 -1 9 3 3 1 -7 
1 -3 -1 -1 11 11 5 -1 -1 -1 7 
-5 -1 5 3 7 5 15 7 5 1 5 
1 5 5 1 -1 3 5 11 -3 3 1 
-1 3 3 9 5 1 9 7 5 3 5 
3 5 5 9 13 7 9 7 11 9 1 
3 7 3 -1 -3 1 -1 -3 3 9 3 
1 -1 -1 5 3 -3 3 1 3 7 -3 
5 -1 1 1 -7 3 3 5 -5 5 9 

-7 -1 11 5 3 7 3 5 3 5 11 
5 5 9 7 1 11 -3 7 11 -7 13 
11 5 1 9 11 1 7 1 9 7 -1 
3 -1 13 1 13 9 -1 5 1 1 1 
9 1 11 9 9 3 13 1 7 7 11 
3 3 -1 3 9 1 3 9 3 1 -5 
-3 13 5 3 11 3 3 5 11 5 7 
5 3 3 11 7 5 11 5 13 3 -1 
9 5 5 9 -1 7 -3 7 9 7 1 
3 -3 5 7 1 3 13 3 9 9 7 
11 1 3 11 -5 13 13 3 5 7 7 

-7 -5 -9 -3 -5 -5 -5 -7 -9 -7 -1 
-15 -19 -3 -5 -3 -5 -7 -9 -1 -3 -3 
-5 -3 -3 9 -13 -15 -1 5 -3 -9 -1 
-5 3 -3 -7 -3 -3 -1 -11 -7 1 -7 
-7 -11 -1 5 1 -1 -3 -3 -1 -9 -1 
-5 -1 -5 7 -7 -7 -1 1 -9 -3 -9 
-11 -7 -11 -5 -5 -17 -13 -7 -5 -11 -13 
-7 -9 3 3 -5 -3 -1 1 -3 -9 3 
-3 1 -3 -11 -1 -1 1 -9 1 -1 -11 
-17 -11 -3 3 -3 -5 -11 -5 -3 1 -5 
-9 -11 -1 -9 -9 -3 1 -5 -7 -1 -9 

-10 -8 -4 -2 0 -8 -8 -2 -12 -2 -4 
-10 -6 -2 -8 -10 -4 2 -12 -4 -10 -10 
0 -2 -10 -14 -4 -2 -4 -2 -2 -4 0 
-8 -4 -2 -2 -2 -6 -12 -2 -2 -10 -14 
-2 -6 0 -2 -6 -12 -10 -6 -8 -4 -4 
-8 -12 -12 -12 -14 -10 -12 -10 -8 -10 -12 
-10 -2 -2 -4 -4 -4 -8 -6 -4 -6 0 
-2 -8 -4 -16 -4 2 -4 -6 -14 -8 -12 
-10 -18 -6 -10 0 0 -6 -4 -14 0 -10 
-12 2 -2 -8 -6 -12 -2 -12 -10 -2 -8 
-4 -2 -12 0 4 6 2 0 -10 -16 -4 

