11 23 9 9 39 49 39 3 21 3 33 7 33 17 
23 27 7 27 7 25 7 33 37 37 25 43 37 67 
21 19 -11 17 39 29 39 37 53 39 29 29 15 37 
21 23 21 41 37 -1 25 13 49 31 15 9 49 23 
15 61 17 29 27 33 31 17 21 15 57 31 21 41 
51 47 33 35 7 13 9 31 21 9 15 35 9 31 
25 11 35 27 15 33 33 33 25 19 13 47 37 27 
59 37 21 21 25 39 15 35 35 17 31 21 19 15 
15 27 17 23 29 37 33 31 17 27 47 7 19 39 
31 15 41 9 39 29 15 51 29 29 39 29 35 15 
15 41 51 25 11 17 29 35 39 9 29 5 41 21 
43 33 23 15 9 27 21 41 19 39 13 15 25 37 
47 13 37 29 35 5 19 35 19 51 19 21 29 19 
41 59 45 43 47 11 19 25 23 21 19 7 25 33 

-10 -22 -16 -36 -34 -12 -10 -26 -4 -26 -12 -30 -12 -8 
6 -26 -22 -6 2 8 -30 -48 -12 -24 -16 -22 -16 6 
-36 -6 -8 -24 -18 -20 -6 -12 -16 -22 -28 -28 -10 -24 
4 -30 -40 -20 -28 -10 -24 4 -28 -10 -26 -28 -56 10 
-26 -16 0 0 -10 -20 -14 -28 -16 -18 -16 -46 -36 -24 
-22 -38 -8 -30 -34 -28 -36 -26 -28 -24 -22 -14 4 -18 
-32 -2 -22 2 -18 -20 -24 -12 -52 -18 0 -30 -12 -18 
-34 -40 0 -8 -4 -2 -38 -18 -22 -12 -18 -40 2 -26 
-34 -18 -32 -18 -32 -16 -28 -10 -20 -10 -2 -22 -18 -10 
18 -34 -20 -20 -10 -24 -30 -10 -12 -20 -14 -28 -6 -30 
-10 0 -22 -16 2 -32 -8 -18 -22 -32 -16 -12 -12 -36 
2 -4 -22 2 -4 -34 -16 -28 -18 -38 -28 -18 -12 -8 
-2 -28 -4 -24 10 -32 -10 -30 -26 -6 -26 -8 -28 -18 
-12 -2 -8 -14 -10 18 -30 -4 -14 -12 -2 -2 -16 -28 

-85 -37 -27 -43 -37 -39 -57 -25 -59 -65 -19 -37 -71 -55 
-45 -29 -37 -61 -57 -35 -53 -67 -55 -51 -51 -53 -63 -41 
-23 -29 -39 -63 -41 -55 -37 -63 -39 -17 -39 -23 -33 -47 
-43 -33 -47 -51 -43 -33 -39 -39 -47 -61 -17 -15 -75 -29 
-53 -51 -43 -19 -33 -55 -33 -35 -43 -53 -51 -45 -43 -11 
-33 -41 -35 -45 -41 -39 -27 -53 -47 -47 -57 -45 -27 -57 
-71 -25 -45 -49 -9 -43 -19 -23 -63 -57 -31 -33 -39 -49 
-45 -39 -39 -19 -63 -53 -37 -29 -41 -51 -49 -39 -25 -37 
-37 -9 -43 -29 -55 -51 -39 -41 -23 -29 -65 -49 -17 -45 
-45 -41 -47 -67 -53 -35 -61 -45 -27 -51 -29 -55 -25 -53 
-57 -31 -9 -51 -41 -51 -31 -29 -45 -39 -35 -39 -75 -63 
-37 -31 -37 -53 -39 -33 -59 -19 -49 -37 -39 -29 -39 -39 
-45 -11 -63 -43 -29 -71 -29 -61 -61 -41 -45 -23 -31 -21 
-35 -33 -59 -29 -37 -41 -53 -43 -45 -55 -41 -45 -55 -43 

-41 -17 -31 -27 -33 -47 -37 -49 -43 -21 -47 3 -27 -23 
-33 -25 -37 -29 -41 -15 -1 -35 -15 -27 -39 -25 -11 -13 
-15 -37 -23 -31 -33 -31 -29 -23 -15 -17 -27 -35 -29 -27 
-19 -29 -15 -35 1 -5 -55 -51 -31 -45 -25 -47 -39 -25 
-33 -43 -27 -11 -33 -15 -21 -31 -27 -17 -7 -25 -27 -19 
-33 -33 -27 -13 -45 -51 -31 -41 -51 -59 -17 -33 -27 -33 
-27 -41 -13 -37 -13 -27 -15 -35 -43 -29 -31 -29 -39 -29 
-25 -19 -35 -27 -39 -37 -45 -21 -33 -43 -17 -11 -13 -29 
-41 -21 -23 -37 -35 -43 -15 -29 -27 -37 -25 -41 -29 -37 
-37 -17 -35 -27 -17 -35 -33 -9 -23 -11 -13 -23 -17 -49 
-25 -31 -25 -31 -25 -31 -27 -25 -33 -23 -43 -23 -27 -11 
-17 -47 -29 -41 -19 -45 -59 -15 -69 -9 -27 -41 -43 -27 
-45 1 -15 -3 -21 -19 -21 -49 -37 -17 -29 -7 -23 -33 
-35 -5 -23 -25 -21 -25 -29 -15 -29 -35 -33 -37 -27 -11 

33 33 43 59 33 23 37 49 23 45 47 53 39 35 
29 65 57 49 45 43 37 35 47 51 27 45 79 41 
47 33 51 35 29 39 49 35 55 53 15 51 37 39 
43 33 47 63 35 37 43 47 39 45 41 55 51 37 
33 35 35 27 57 39 53 35 55 33 51 37 43 75 
69 49 47 65 45 35 47 45 39 31 45 57 43 37 
35 41 53 13 45 31 31 51 35 57 47 53 23 45 
61 55 43 67 35 41 29 37 29 47 45 51 49 17 
57 45 39 49 27 31 35 45 35 45 49 45 53 65 
25 41 31 51 61 39 77 49 47 63 61 39 41 37 
33 35 53 43 57 39 23 49 25 39 51 39 27 71 
53 23 53 29 43 49 47 43 49 53 47 57 47 43 
29 39 55 47 37 31 49 49 41 45 53 51 51 53 
15 49 31 65 29 41 37 35 45 51 25 21 27 47 

