-16 -4 -18 -18 12 22 12 -24 -6 -24 6 -20 6 -10 
-4 0 -20 0 -20 -2 -20 6 10 10 -2 16 10 40 
-6 -8 -38 -10 12 2 12 10 26 12 2 2 -12 10 
-6 -4 -6 14 10 -28 -2 -14 22 4 -12 -18 22 -4 
-12 34 -10 2 0 6 4 -10 -6 -12 30 4 -6 14 
24 20 6 8 -20 -14 -18 4 -6 -18 -12 8 -18 4 
-2 -16 8 0 -12 6 6 6 -2 -8 -14 20 10 0 
32 10 -6 -6 -2 12 -12 8 8 -10 4 -6 -8 -12 
-12 0 -10 -4 2 10 6 4 -10 0 20 -20 -8 12 
4 -12 14 -18 12 2 -12 24 2 2 12 2 8 -12 
-12 14 24 -2 -16 -10 2 8 12 -18 2 -22 14 -6 
16 6 -4 -12 -18 0 -6 14 -8 12 -14 -12 -2 10 
20 -14 10 2 8 -22 -8 8 -8 24 -8 -6 2 -8 
14 32 18 16 20 -16 -8 -2 -4 -6 -8 -20 -2 6 

6 -6 0 -20 -18 4 6 -10 12 -10 4 -14 4 8 
22 -10 -6 10 18 24 -14 -32 4 -8 0 -6 0 22 
-20 10 8 -8 -2 -4 10 4 0 -6 -12 -12 6 -8 
20 -14 -24 -4 -12 6 -8 20 -12 6 -10 -12 -40 26 
-10 0 16 16 6 -4 2 -12 0 -2 0 -30 -20 -8 
-6 -22 8 -14 -18 -12 -20 -10 -12 -8 -6 2 20 -2 
-16 14 -6 18 -2 -4 -8 4 -36 -2 16 -14 4 -2 
-18 -24 16 8 12 14 -22 -2 -6 4 -2 -24 18 -10 
-18 -2 -16 -2 -16 0 -12 6 -4 6 14 -6 -2 6 
34 -18 -4 -4 6 -8 -14 6 4 -4 2 -12 10 -14 
6 16 -6 0 18 -16 8 -2 -6 -16 0 4 4 -20 
18 12 -6 18 12 -18 0 -12 -2 -22 -12 -2 4 8 
14 -12 12 -8 26 -16 6 -14 -10 10 -10 8 -12 -2 
4 14 8 2 6 34 -14 12 2 4 14 14 0 -12 

-42 6 16 0 6 4 -14 18 -16 -22 24 6 -28 -12 
-2 14 6 -18 -14 8 -10 -24 -12 -8 -8 -10 -20 2 
20 14 4 -20 2 -12 6 -20 4 26 4 20 10 -4 
0 10 -4 -8 0 10 4 4 -4 -18 26 28 -32 14 
-10 -8 0 24 10 -12 10 8 0 -10 -8 -2 0 32 
10 2 8 -2 2 4 16 -10 -4 -4 -14 -2 16 -14 
-28 18 -2 -6 34 0 24 20 -20 -14 12 10 4 -6 
-2 4 4 24 -20 -10 6 14 2 -8 -6 4 18 6 
6 34 0 14 -12 -8 4 2 20 14 -22 -6 26 -2 
-2 2 -4 -24 -10 8 -18 -2 16 -8 14 -12 18 -10 
-14 12 34 -8 2 -8 12 14 -2 4 8 4 -32 -20 
6 12 6 -10 4 10 -16 24 -6 6 4 14 4 4 
-2 32 -20 0 14 -28 14 -18 -18 2 -2 20 12 22 
8 10 -16 14 6 2 -10 0 -2 -12 2 -2 -12 0 

-14 10 -4 0 -6 -20 -10 -22 -16 6 -20 30 0 4 
-6 2 -10 -2 -14 12 26 -8 12 0 -12 2 16 14 
12 -10 4 -4 -6 -4 -2 4 12 10 0 -8 -2 0 
8 -2 12 -8 28 22 -28 -24 -4 -18 2 -20 -12 2 
-6 -16 0 16 -6 12 6 -4 0 10 20 2 0 8 
-6 -6 0 14 -18 -24 -4 -14 -24 -32 10 -6 0 -6 
0 -14 14 -10 14 0 12 -8 -16 -2 -4 -2 -12 -2 
2 8 -8 0 -12 -10 -18 6 -6 -16 10 16 14 -2 
-14 6 4 -10 -8 -16 12 -2 0 -10 2 -14 -2 -10 
-10 10 -8 0 10 -8 -6 18 4 16 14 4 10 -22 
2 -4 2 -4 2 -4 0 2 -6 4 -16 4 0 16 
10 -20 -2 -14 8 -18 -32 12 -42 18 0 -14 -16 0 
-18 28 12 24 6 8 6 -22 -10 10 -2 20 4 -6 
-8 22 4 2 6 2 -2 12 -2 -8 -6 -10 0 16 

-10 -10 0 16 -10 -20 -6 6 -20 2 4 10 -4 -8 
-14 22 14 6 2 0 -6 -8 4 8 -16 2 36 -2 
4 -10 8 -8 -14 -4 6 -8 12 10 -28 8 -6 -4 
0 -10 4 20 -8 -6 0 4 -4 2 -2 12 8 -6 
-10 -8 -8 -16 14 -4 10 -8 12 -10 8 -6 0 32 
26 6 4 22 2 -8 4 2 -4 -12 2 14 0 -6 
-8 -2 10 -30 2 -12 -12 8 -8 14 4 10 -20 2 
18 12 0 24 -8 -2 -14 -6 -14 4 2 8 6 -26 
14 2 -4 6 -16 -12 -8 2 -8 2 6 2 10 22 
-18 -2 -12 8 18 -4 34 6 4 20 18 -4 -2 -6 
-10 -8 10 0 14 -4 -20 6 -18 -4 8 -4 -16 28 
10 -20 10 -14 0 6 4 0 6 10 4 14 4 0 
-14 -4 12 4 -6 -12 6 6 -2 2 10 8 8 10 
-28 6 -12 22 -14 -2 -6 -8 2 8 -18 -22 -16 4 

