-5 15 13 5 1 17 19 3 -19 27 11 -1 
-11 1 -1 3 3 -3 -11 31 1 -19 -3 19 
9 13 15 3 -9 -25 13 7 15 -1 3 -9 
-17 19 5 39 31 17 3 -21 -7 -9 -3 19 
-23 -11 3 1 -3 11 -3 -15 -17 -29 -5 -1 
-19 -17 -11 -1 -9 -3 3 9 13 -7 -3 -3 
9 -17 7 1 9 15 1 23 1 -11 -21 -11 
-17 13 15 -13 3 -1 -13 11 11 -13 -9 -19 
1 -5 17 29 -5 1 -5 3 -7 3 -1 17 
5 -1 -9 -7 13 -1 5 5 -3 -7 -17 13 
-15 -5 7 3 17 -3 -33 3 -7 -13 -7 -7 
-1 -11 -5 3 3 -13 -27 11 21 5 9 21 

-1 7 -7 -3 -11 -11 -9 7 -11 15 -1 -5 
25 21 19 7 -13 -3 1 7 1 1 -11 27 
-7 17 -13 19 -5 -9 9 3 -5 3 -1 -9 
19 3 5 -29 -5 13 3 -5 1 -1 13 -13 
1 25 15 5 1 -9 -7 -3 -1 -5 15 7 
5 -25 -7 -1 3 -11 -21 5 17 1 13 -11 
-7 -21 -13 -15 9 -1 17 15 13 9 -9 25 
-9 -7 11 -5 -1 -17 -5 -1 -5 7 -21 9 
-7 3 -11 -7 11 -15 7 -9 -11 -5 -13 -7 
25 3 19 21 5 -9 1 1 13 9 -5 13 
-3 3 7 11 5 1 3 -21 1 7 -11 -11 
-1 -11 -9 11 7 7 -11 27 -27 -23 -11 5 

-19 -15 -1 -17 11 -1 -7 -7 19 13 5 5 
-1 -9 13 -3 1 -13 -13 5 -33 7 3 -7 
-1 -9 13 -11 17 -15 15 -7 -3 5 -7 -15 
1 -11 -5 5 9 -9 9 -19 23 -15 -1 13 
11 -29 9 -5 -5 21 7 3 9 1 -3 -11 
7 -7 31 -3 9 -1 1 -13 -25 19 -5 -5 
-1 9 17 3 15 -3 23 1 -13 19 17 -5 
-3 -1 -3 -3 21 -7 -7 -7 -15 -23 -3 3 
-29 -11 15 3 9 -1 9 -3 11 13 5 31 
-1 -7 -19 -5 -5 13 3 7 -13 7 1 3 
-5 1 -7 -7 3 15 -7 17 -5 -3 7 3 
5 -9 17 25 1 -27 -1 -19 7 3 7 15 

